digraph Tree {
node [shape=box, style="filled, rounded", color="black", fontname="helvetica"] ;
edge [fontname="helvetica"] ;
0 [label="prcntUnemp <= 5.417\ngini = 0.206\nsamples = 8679\nvalue = [7699, 634, 346]\nclass = white", fillcolor="#e89051"] ;
1 [label="gini <= 0.043\ngini = 0.101\nsamples = 5875\nvalue = [5567, 164, 144]\nclass = white", fillcolor="#e68844"] ;
0 -> 1 [labeldistance=2.5, labelangle=45, headlabel="True"] ;
2 [label="prcntHS <= 34.523\ngini = 0.375\nsamples = 12\nvalue = [0, 3, 9]\nclass = hispanic", fillcolor="#ab7bee"] ;
1 -> 2 ;
3 [label="gini = 0.0\nsamples = 9\nvalue = [0, 0, 9]\nclass = hispanic", fillcolor="#8139e5"] ;
2 -> 3 ;
4 [label="gini = 0.0\nsamples = 3\nvalue = [0, 3, 0]\nclass = black", fillcolor="#39e581"] ;
2 -> 4 ;
5 [label="prcntUnemp <= 3.904\ngini = 0.097\nsamples = 5863\nvalue = [5567, 161, 135]\nclass = white", fillcolor="#e68843"] ;
1 -> 5 ;
6 [label="totalPopRaceFile <= 11295899.5\ngini = 0.043\nsamples = 4118\nvalue = [4027, 64, 27]\nclass = white", fillcolor="#e6843d"] ;
5 -> 6 ;
7 [label="prcntHS <= 47.562\ngini = 0.041\nsamples = 4109\nvalue = [4024, 64, 21]\nclass = white", fillcolor="#e6843d"] ;
6 -> 7 ;
8 [label="prcntUnemp <= 2.885\ngini = 0.158\nsamples = 429\nvalue = [392, 37, 0]\nclass = white", fillcolor="#e78d4c"] ;
7 -> 8 ;
9 [label="gini = 0.03\nsamples = 330\nvalue = [325, 5, 0]\nclass = white", fillcolor="#e5833c"] ;
8 -> 9 ;
10 [label="gini = 0.438\nsamples = 99\nvalue = [67, 32, 0]\nclass = white", fillcolor="#f1bd98"] ;
8 -> 10 ;
11 [label="totalPopRaceFile <= 8506481.0\ngini = 0.026\nsamples = 3680\nvalue = [3632, 27, 21]\nclass = white", fillcolor="#e5833c"] ;
7 -> 11 ;
12 [label="gini = 0.024\nsamples = 3674\nvalue = [3629, 24, 21]\nclass = white", fillcolor="#e5833b"] ;
11 -> 12 ;
13 [label="gini = 0.5\nsamples = 6\nvalue = [3, 3, 0]\nclass = white", fillcolor="#ffffff"] ;
11 -> 13 ;
14 [label="prcntUnemp <= 2.625\ngini = 0.444\nsamples = 9\nvalue = [3, 0, 6]\nclass = hispanic", fillcolor="#c09cf2"] ;
6 -> 14 ;
15 [label="gini = 0.0\nsamples = 3\nvalue = [3, 0, 0]\nclass = white", fillcolor="#e58139"] ;
14 -> 15 ;
16 [label="gini = 0.0\nsamples = 6\nvalue = [0, 0, 6]\nclass = hispanic", fillcolor="#8139e5"] ;
14 -> 16 ;
17 [label="prcntHS <= 80.818\ngini = 0.214\nsamples = 1745\nvalue = [1540, 97, 108]\nclass = white", fillcolor="#e89152"] ;
5 -> 17 ;
18 [label="gini <= 0.45\ngini = 0.291\nsamples = 1192\nvalue = [994, 92, 106]\nclass = white", fillcolor="#ea985d"] ;
17 -> 18 ;
19 [label="totalPopRaceFile <= 597244.0\ngini = 0.156\nsamples = 852\nvalue = [781, 21, 50]\nclass = white", fillcolor="#e78c4b"] ;
18 -> 19 ;
20 [label="gini = 0.11\nsamples = 729\nvalue = [687, 17, 25]\nclass = white", fillcolor="#e78945"] ;
19 -> 20 ;
21 [label="gini = 0.374\nsamples = 123\nvalue = [94, 4, 25]\nclass = white", fillcolor="#eda674"] ;
19 -> 21 ;
22 [label="prcntHS <= 69.35\ngini = 0.537\nsamples = 340\nvalue = [213, 71, 56]\nclass = white", fillcolor="#f1bc96"] ;
18 -> 22 ;
23 [label="gini = 0.654\nsamples = 102\nvalue = [27, 32, 43]\nclass = hispanic", fillcolor="#ebe0fb"] ;
22 -> 23 ;
24 [label="gini = 0.359\nsamples = 238\nvalue = [186, 39, 13]\nclass = white", fillcolor="#eca26d"] ;
22 -> 24 ;
25 [label="gini <= 0.413\ngini = 0.025\nsamples = 553\nvalue = [546, 5, 2]\nclass = white", fillcolor="#e5833c"] ;
17 -> 25 ;
26 [label="prcntBA <= 27.35\ngini = 0.5\nsamples = 10\nvalue = [5, 5, 0]\nclass = white", fillcolor="#ffffff"] ;
25 -> 26 ;
27 [label="gini = 0.0\nsamples = 5\nvalue = [5, 0, 0]\nclass = white", fillcolor="#e58139"] ;
26 -> 27 ;
28 [label="gini = 0.0\nsamples = 5\nvalue = [0, 5, 0]\nclass = black", fillcolor="#39e581"] ;
26 -> 28 ;
29 [label="prcntUnemp <= 4.95\ngini = 0.007\nsamples = 543\nvalue = [541, 0, 2]\nclass = white", fillcolor="#e5813a"] ;
25 -> 29 ;
30 [label="gini = 0.0\nsamples = 383\nvalue = [383, 0, 0]\nclass = white", fillcolor="#e58139"] ;
29 -> 30 ;
31 [label="gini = 0.025\nsamples = 160\nvalue = [158, 0, 2]\nclass = white", fillcolor="#e5833c"] ;
29 -> 31 ;
32 [label="prcntHS <= 78.25\ngini = 0.389\nsamples = 2804\nvalue = [2132, 470, 202]\nclass = white", fillcolor="#eca572"] ;
0 -> 32 [labeldistance=2.5, labelangle=-45, headlabel="False"] ;
33 [label="gini <= 0.418\ngini = 0.64\nsamples = 861\nvalue = [380, 300, 181]\nclass = white", fillcolor="#fbede3"] ;
32 -> 33 ;
34 [label="prcntBA <= 9.183\ngini = 0.179\nsamples = 182\nvalue = [164, 17, 1]\nclass = white", fillcolor="#e88f4f"] ;
33 -> 34 ;
35 [label="gini = 0.0\nsamples = 16\nvalue = [0, 16, 0]\nclass = black", fillcolor="#39e581"] ;
34 -> 35 ;
36 [label="prcntUnemp <= 8.565\ngini = 0.024\nsamples = 166\nvalue = [164, 1, 1]\nclass = white", fillcolor="#e5833b"] ;
34 -> 36 ;
37 [label="prcntBA <= 9.56\ngini = 0.012\nsamples = 165\nvalue = [164, 1, 0]\nclass = white", fillcolor="#e5823a"] ;
36 -> 37 ;
38 [label="gini = 0.32\nsamples = 5\nvalue = [4, 1, 0]\nclass = white", fillcolor="#eca06a"] ;
37 -> 38 ;
39 [label="gini = 0.0\nsamples = 160\nvalue = [160, 0, 0]\nclass = white", fillcolor="#e58139"] ;
37 -> 39 ;
40 [label="gini = 0.0\nsamples = 1\nvalue = [0, 0, 1]\nclass = hispanic", fillcolor="#8139e5"] ;
36 -> 40 ;
41 [label="totalPopRaceFile <= 617208.0\ngini = 0.655\nsamples = 679\nvalue = [216, 283, 180]\nclass = black", fillcolor="#e2fbed"] ;
33 -> 41 ;
42 [label="gini <= 0.436\ngini = 0.423\nsamples = 264\nvalue = [43, 194, 27]\nclass = black", fillcolor="#78eda9"] ;
41 -> 42 ;
43 [label="prcntHS <= 45.992\ngini = 0.628\nsamples = 34\nvalue = [15, 6, 13]\nclass = white", fillcolor="#fdf3ec"] ;
42 -> 43 ;
44 [label="gini = 0.0\nsamples = 8\nvalue = [0, 0, 8]\nclass = hispanic", fillcolor="#8139e5"] ;
43 -> 44 ;
45 [label="gini = 0.577\nsamples = 26\nvalue = [15, 6, 5]\nclass = white", fillcolor="#f3c6a6"] ;
43 -> 45 ;
46 [label="prcntHS <= 45.727\ngini = 0.313\nsamples = 230\nvalue = [28, 188, 14]\nclass = black", fillcolor="#62ea9b"] ;
42 -> 46 ;
47 [label="gini = 0.576\nsamples = 19\nvalue = [11, 4, 4]\nclass = white", fillcolor="#f3c4a3"] ;
46 -> 47 ;
48 [label="gini = 0.231\nsamples = 211\nvalue = [17, 184, 10]\nclass = black", fillcolor="#55e993"] ;
46 -> 48 ;
49 [label="prcntHS <= 67.95\ngini = 0.644\nsamples = 415\nvalue = [173, 89, 153]\nclass = white", fillcolor="#fdf5f0"] ;
41 -> 49 ;
50 [label="prcntBA <= 7.45\ngini = 0.403\nsamples = 127\nvalue = [23, 9, 95]\nclass = hispanic", fillcolor="#a876ed"] ;
49 -> 50 ;
51 [label="gini = 0.26\nsamples = 13\nvalue = [11, 0, 2]\nclass = white", fillcolor="#ea985d"] ;
50 -> 51 ;
52 [label="gini = 0.317\nsamples = 114\nvalue = [12, 9, 93]\nclass = hispanic", fillcolor="#9b62ea"] ;
50 -> 52 ;
53 [label="prcntUnemp <= 7.35\ngini = 0.611\nsamples = 288\nvalue = [150, 80, 58]\nclass = white", fillcolor="#f6d5bc"] ;
49 -> 53 ;
54 [label="gini = 0.361\nsamples = 93\nvalue = [73, 10, 10]\nclass = white", fillcolor="#eb9f69"] ;
53 -> 54 ;
55 [label="gini = 0.655\nsamples = 195\nvalue = [77, 70, 48]\nclass = white", fillcolor="#fef8f4"] ;
53 -> 55 ;
56 [label="prcntUnemp <= 13.75\ngini = 0.179\nsamples = 1943\nvalue = [1752, 170, 21]\nclass = white", fillcolor="#e88f4e"] ;
32 -> 56 ;
57 [label="gini <= 0.541\ngini = 0.14\nsamples = 1851\nvalue = [1712, 119, 20]\nclass = white", fillcolor="#e78b49"] ;
56 -> 57 ;
58 [label="prcntHS <= 82.25\ngini = 0.112\nsamples = 1772\nvalue = [1668, 84, 20]\nclass = white", fillcolor="#e78945"] ;
57 -> 58 ;
59 [label="CvxHullPT <= 0.563\ngini = 0.317\nsamples = 281\nvalue = [228, 43, 10]\nclass = white", fillcolor="#eb9d65"] ;
58 -> 59 ;
60 [label="gini = 0.602\nsamples = 37\nvalue = [14, 18, 5]\nclass = black", fillcolor="#ddfae9"] ;
59 -> 60 ;
61 [label="gini = 0.22\nsamples = 244\nvalue = [214, 25, 5]\nclass = white", fillcolor="#e99254"] ;
59 -> 61 ;
62 [label="totalPopRaceFile <= 595534.0\ngini = 0.066\nsamples = 1491\nvalue = [1440, 41, 10]\nclass = white", fillcolor="#e68540"] ;
58 -> 62 ;
63 [label="gini = 0.334\nsamples = 33\nvalue = [26, 7, 0]\nclass = white", fillcolor="#eca36e"] ;
62 -> 63 ;
64 [label="gini = 0.059\nsamples = 1458\nvalue = [1414, 34, 10]\nclass = white", fillcolor="#e6853f"] ;
62 -> 64 ;
65 [label="prcntBA <= 46.25\ngini = 0.494\nsamples = 79\nvalue = [44, 35, 0]\nclass = white", fillcolor="#fae5d7"] ;
57 -> 65 ;
66 [label="CvxHullPT <= 0.611\ngini = 0.463\nsamples = 55\nvalue = [20, 35, 0]\nclass = black", fillcolor="#aaf4c9"] ;
65 -> 66 ;
67 [label="gini = 0.432\nsamples = 19\nvalue = [13, 6, 0]\nclass = white", fillcolor="#f1bb94"] ;
66 -> 67 ;
68 [label="gini = 0.313\nsamples = 36\nvalue = [7, 29, 0]\nclass = black", fillcolor="#69eb9f"] ;
66 -> 68 ;
69 [label="gini = 0.0\nsamples = 24\nvalue = [24, 0, 0]\nclass = white", fillcolor="#e58139"] ;
65 -> 69 ;
70 [label="prcntHS <= 87.35\ngini = 0.504\nsamples = 92\nvalue = [40, 51, 1]\nclass = black", fillcolor="#d5fae4"] ;
56 -> 70 ;
71 [label="totalPopRaceFile <= 684586.0\ngini = 0.469\nsamples = 78\nvalue = [27, 50, 1]\nclass = black", fillcolor="#a6f3c6"] ;
70 -> 71 ;
72 [label="CvxHullPT <= 0.401\ngini = 0.239\nsamples = 36\nvalue = [5, 31, 0]\nclass = black", fillcolor="#59e995"] ;
71 -> 72 ;
73 [label="gini = 0.0\nsamples = 1\nvalue = [1, 0, 0]\nclass = white", fillcolor="#e58139"] ;
72 -> 73 ;
74 [label="gini = 0.202\nsamples = 35\nvalue = [4, 31, 0]\nclass = black", fillcolor="#53e891"] ;
72 -> 74 ;
75 [label="prcntBA <= 26.1\ngini = 0.52\nsamples = 42\nvalue = [22, 19, 1]\nclass = white", fillcolor="#fcefe5"] ;
71 -> 75 ;
76 [label="gini = 0.471\nsamples = 32\nvalue = [21, 10, 1]\nclass = white", fillcolor="#f2c09c"] ;
75 -> 76 ;
77 [label="gini = 0.18\nsamples = 10\nvalue = [1, 9, 0]\nclass = black", fillcolor="#4fe88f"] ;
75 -> 77 ;
78 [label="year <= 2010.0\ngini = 0.133\nsamples = 14\nvalue = [13, 1, 0]\nclass = white", fillcolor="#e78b48"] ;
70 -> 78 ;
79 [label="gini = 0.0\nsamples = 12\nvalue = [12, 0, 0]\nclass = white", fillcolor="#e58139"] ;
78 -> 79 ;
80 [label="CvxHullPT <= 0.604\ngini = 0.5\nsamples = 2\nvalue = [1, 1, 0]\nclass = white", fillcolor="#ffffff"] ;
78 -> 80 ;
81 [label="gini = 0.0\nsamples = 1\nvalue = [1, 0, 0]\nclass = white", fillcolor="#e58139"] ;
80 -> 81 ;
82 [label="gini = 0.0\nsamples = 1\nvalue = [0, 1, 0]\nclass = black", fillcolor="#39e581"] ;
80 -> 82 ;
}